solver_type L2R_L2LOSS_SVC_DUAL
nr_class 2
label 1 -1
nr_feature 232
bias -1
w
0.01351496058528782 
0.01351496058528782 
0.02847713280843858 
0.01351496058528782 
0.01351496058528782 
0.01351496058528782 
0 
0.01351496058528782 
0.01351496058528782 
0.01351496058528782 
0.01351496058528782 
0.01351496058528782 
0 
0.01351496058528782 
0.01351496058528782 
0.01351496058528782 
0.01351496058528782 
0.01351496058528782 
0.01351496058528782 
0.01351496058528782 
0.01351496058528782 
0.01351496058528782 
0.01351496058528782 
0.01351496058528782 
0.01351496058528782 
0.01351496058528782 
0.01351496058528782 
0.01351496058528782 
0.01351496058528782 
0.01351496058528782 
0.01351496058528782 
0.01351496058528782 
0.01351496058528782 
0.01351496058528782 
0.01351496058528782 
0.01351496058528782 
0.01351496058528782 
0.01351496058528782 
0.01351496058528782 
0.01351496058528782 
0.01351496058528782 
0.01351496058528782 
0.01351496058528782 
0.01351496058528782 
0.01351496058528782 
0.01351496058528782 
0.01351496058528782 
0.01351496058528782 
0.01351496058528782 
0.01351496058528782 
-0.01730916114698655 
-0.01730916114698655 
-0.01730916114698655 
-0.01730916114698655 
-0.0158619495091236 
-0.01730916114698655 
-0.01730916114698655 
-0.01730916114698655 
-0.01730916114698655 
-0.01730916114698655 
-0.01730916114698655 
-0.01730916114698655 
-0.01730916114698654 
-0.01730916114698654 
-0.01730916114698655 
-0.01730916114698655 
-0.01730916114698655 
-0.01730916114698655 
-0.01730916114698655 
-0.01730916114698655 
-0.01730916114698655 
-0.01730916114698655 
-0.01730916114698655 
-0.01730916114698655 
-0.01730916114698655 
-0.01730916114698655 
-0.01730916114698655 
-0.01730916114698655 
-0.01730916114698654 
-0.01730916114698655 
-0.01730916114698655 
0.01351496058528782 
0.01351496058528782 
0.01351496058528782 
0.01351496058528782 
0.01351496058528782 
0.01351496058528782 
0.01351496058528782 
0.01351496058528782 
0.01351496058528782 
0.01351496058528782 
0.01351496058528782 
0.01351496058528782 
0.01351496058528782 
0.01351496058528782 
0.01351496058528782 
0.01351496058528782 
0.01351496058528782 
0.01351496058528782 
0.01351496058528782 
0.01351496058528782 
0.01351496058528782 
0.01351496058528782 
0.01351496058528782 
0.01351496058528782 
0.01351496058528782 
0.01351496058528782 
0.01351496058528782 
0.01351496058528782 
0.01351496058528782 
0.01351496058528782 
0.01351496058528782 
0.01351496058528782 
0.01351496058528782 
0.01351496058528782 
0.01351496058528782 
0.01351496058528782 
0.01351496058528782 
0.01351496058528782 
0.01351496058528782 
0.01351496058528782 
0.01351496058528782 
0.01351496058528782 
0.01351496058528782 
0.01351496058528782 
0.01351496058528782 
0.01496217222315076 
0.01496217222315076 
0.01496217222315076 
0.01496217222315076 
0.01496217222315076 
0.01496217222315076 
0.01496217222315076 
0.01496217222315076 
0.01496217222315076 
0.01496217222315076 
0.01496217222315076 
0.01496217222315076 
0.01496217222315076 
0.01496217222315076 
0.01496217222315076 
0.01496217222315076 
0.01496217222315076 
0.01496217222315076 
0.01496217222315076 
0.01496217222315076 
0.01496217222315076 
0.01496217222315076 
0.01496217222315076 
0.01496217222315076 
0.01496217222315076 
0.01496217222315076 
0.01496217222315076 
0.01496217222315076 
0.01496217222315076 
0.01496217222315076 
0.01496217222315076 
0.01496217222315076 
0.01496217222315076 
0.01496217222315076 
0.01496217222315076 
0.01496217222315076 
0.01496217222315076 
0.01496217222315076 
0.01496217222315076 
0.01496217222315076 
0.02128018318358016 
0.02128018318358016 
0.02128018318358016 
0.02128018318358016 
0.02128018318358016 
0.02128018318358016 
0.02128018318358016 
0.02128018318358016 
0.02128018318358016 
0.02128018318358016 
0.02128018318358016 
0.02128018318358016 
0.02128018318358016 
0.02128018318358016 
0.02128018318358016 
0.02128018318358016 
0.02128018318358016 
0.02128018318358016 
0.02128018318358016 
0.02128018318358016 
0.02128018318358016 
-0.01351496058528782 
-0.01351496058528782 
-0.01351496058528782 
-0.01351496058528782 
-0.01351496058528782 
-0.01351496058528782 
-0.01351496058528782 
-0.01351496058528782 
-0.01351496058528782 
-0.01351496058528782 
-0.01351496058528782 
-0.01351496058528782 
-0.01351496058528782 
-0.01351496058528782 
-0.01351496058528782 
-0.01351496058528782 
-0.01351496058528782 
-0.01351496058528782 
-0.01351496058528782 
-0.01351496058528782 
-0.01351496058528782 
-0.01351496058528782 
-0.01351496058528782 
-0.01351496058528782 
-0.01351496058528782 
-0.01351496058528782 
-0.01351496058528782 
-0.01351496058528782 
-0.01351496058528782 
-0.01351496058528782 
-0.01351496058528782 
-0.01351496058528782 
-0.01351496058528782 
-0.01351496058528782 
-0.01351496058528782 
-0.01351496058528782 
-0.01351496058528782 
-0.01351496058528782 
-0.01351496058528782 
-0.01351496058528782 
-0.01351496058528782 
-0.01351496058528782 
-0.01351496058528782 
-0.01351496058528782 
-0.01351496058528782 
