solver_type L2R_L2LOSS_SVC_DUAL
nr_class 2
label -1 1
nr_feature 191
bias -1
w
0.01255940889938495 
0.01255940889938495 
0.03883740656371797 
0.01255940889938495 
0.01255940889938495 
0.01255940889938495 
0.01255940889938495 
0.05054413702461621 
0.03832846221400371 
0.03832846221400371 
0.01255940889938495 
0.01255940889938495 
0.01255940889938495 
0.01255940889938495 
0.01255940889938495 
0.01255940889938495 
-0.007182710085704662 
0.01255940889938495 
0.01255940889938495 
-0.007182710085704662 
-0.007182710085704662 
0.01255940889938495 
0.01255940889938495 
0.01255940889938495 
0.01255940889938495 
0.01255940889938495 
0.01255940889938495 
0.01255940889938495 
0.01255940889938495 
0.01255940889938495 
0.01255940889938495 
0.01255940889938495 
0.03832846221400371 
0.01255940889938495 
0.01255940889938495 
0.01255940889938495 
0.01255940889938495 
0.01255940889938495 
0.01255940889938495 
0.01255940889938495 
0.01255940889938495 
0.01255940889938495 
0.01255940889938495 
0.01255940889938495 
0.01255940889938495 
0.01255940889938495 
0.01255940889938495 
-0.01974211898508961 
-0.01974211898508961 
-0.01974211898508961 
-0.01974211898508961 
-0.01974211898508961 
-0.01974211898508961 
-0.01974211898508961 
-0.01974211898508961 
-0.01974211898508961 
-0.01974211898508961 
-0.002592378421223014 
-0.002592378421223014 
-0.01974211898508961 
-0.01974211898508961 
-0.01974211898508961 
-0.01974211898508961 
-0.01974211898508961 
-0.01974211898508961 
-0.01974211898508961 
-0.01974211898508961 
-0.01974211898508961 
-0.01974211898508961 
-0.01974211898508961 
-0.01974211898508961 
-0.01974211898508961 
-0.01974211898508961 
-0.01974211898508961 
-0.01974211898508961 
-0.01974211898508961 
-0.002592378421223014 
-0.01974211898508961 
-0.01974211898508961 
0.01299854532093615 
0.01299854532093615 
0.01299854532093615 
0.01299854532093615 
0.01299854532093615 
0.01299854532093615 
0.01299854532093615 
0.01299854532093615 
0.01299854532093615 
0.01299854532093615 
0.01299854532093615 
0.01299854532093615 
0.01299854532093615 
0.02836143173584176 
0.01299854532093615 
0.01299854532093615 
0.01299854532093615 
0.01299854532093615 
0.01299854532093615 
0.01299854532093615 
0.01299854532093615 
0.01299854532093615 
0.01299854532093615 
0.01299854532093615 
0.01299854532093615 
0.01299854532093615 
0.01299854532093615 
0.01299854532093615 
0.01299854532093615 
0.01299854532093615 
0.01299854532093615 
0.01299854532093615 
0.01299854532093615 
0.01299854532093615 
0.01299854532093615 
0.01299854532093615 
0.01299854532093615 
0.01536288641490562 
0.01536288641490562 
0.01536288641490562 
0.04164088407923865 
0.01536288641490562 
0.01536288641490562 
0.01536288641490562 
0.01536288641490562 
0.01536288641490562 
0.01536288641490562 
0.01536288641490562 
0.01536288641490562 
0.01536288641490562 
0.01536288641490562 
0.01536288641490562 
0.01536288641490562 
0.01536288641490562 
0.01536288641490562 
0.01536288641490562 
0.01536288641490562 
0.01536288641490562 
0.01536288641490562 
0.01536288641490562 
0.01536288641490562 
0.01536288641490562 
0.01536288641490562 
0.01536288641490562 
0.01536288641490562 
0.0171497405638666 
0.0171497405638666 
0.0171497405638666 
0.0171497405638666 
0.0171497405638666 
0.0171497405638666 
0.0171497405638666 
0.0171497405638666 
0.0171497405638666 
0.0171497405638666 
0.0171497405638666 
0.0171497405638666 
0.0171497405638666 
0.0171497405638666 
0.0171497405638666 
0.0171497405638666 
0.0171497405638666 
0.0171497405638666 
0.0171497405638666 
0.0171497405638666 
0.0171497405638666 
0.0171497405638666 
0.0171497405638666 
0.0171497405638666 
0.0171497405638666 
0.0171497405638666 
0.02627799766433302 
0.02627799766433302 
0.02627799766433302 
0.02627799766433302 
0.02627799766433302 
0.02627799766433302 
0.02627799766433302 
0.02627799766433302 
0.02627799766433302 
0.02498618280429512 
0.02498618280429512 
0.02498618280429512 
0.02498618280429512 
0.02498618280429512 
0.02498618280429512 
0.02498618280429512 
0.02498618280429512 
0.02498618280429512 
0.02498618280429512 
0.02498618280429512 
0.02498618280429512 
