solver_type L2R_L2LOSS_SVC_DUAL
nr_class 2
label 1 -1
nr_feature 232
bias -1
w
0.01263889074337755 
0.01263889074337755 
0.02725985938596332 
0.01263889074337755 
0.01263889074337755 
0.01263889074337755 
0.02557992624553777 
0.01263889074337755 
0.01263889074337755 
0.01263889074337755 
0.01263889074337755 
0.01263889074337755 
0.02557992624553777 
0.01263889074337755 
0.01263889074337755 
0.01263889074337755 
0.01263889074337755 
0.01263889074337755 
0.01263889074337755 
0.01263889074337755 
0.01263889074337755 
0.01263889074337755 
0.01263889074337755 
0.01263889074337755 
0.01263889074337755 
0.01263889074337755 
0.01263889074337755 
0.01263889074337755 
0.01263889074337755 
0.01263889074337755 
0.01263889074337755 
0.01263889074337755 
0.01263889074337755 
0.01263889074337755 
0.01263889074337755 
0.01263889074337755 
0.01263889074337755 
0.01263889074337755 
0.01263889074337755 
0.01263889074337755 
0.01263889074337755 
0.01263889074337755 
0.01263889074337755 
0.01263889074337755 
0.01263889074337755 
0.01263889074337755 
0.01263889074337755 
0.01263889074337755 
0.01263889074337755 
0.01263889074337755 
-0.0194030514975682 
-0.0194030514975682 
-0.0194030514975682 
-0.0194030514975682 
0.008158952647177791 
-0.0194030514975682 
-0.0194030514975682 
-0.0194030514975682 
-0.0194030514975682 
-0.0194030514975682 
-0.0194030514975682 
-0.0194030514975682 
0.007323403376513906 
0.007323403376513906 
-0.0194030514975682 
-0.0194030514975682 
-0.0194030514975682 
-0.0194030514975682 
-0.0194030514975682 
-0.0194030514975682 
-0.0194030514975682 
-0.0194030514975682 
-0.0194030514975682 
-0.0194030514975682 
-0.0194030514975682 
-0.0194030514975682 
-0.0194030514975682 
-0.0194030514975682 
0.007323403376513906 
-0.0194030514975682 
-0.0194030514975682 
0.01378541937192189 
0.01378541937192189 
0.01378541937192189 
0.01378541937192189 
0.01378541937192189 
0.01378541937192189 
0.01378541937192189 
0.01378541937192189 
0.01378541937192189 
0.01378541937192189 
0.01378541937192189 
0.01378541937192189 
0.01378541937192189 
0.01378541937192189 
0.01378541937192189 
0.01378541937192189 
0.01378541937192189 
0.01378541937192189 
0.01378541937192189 
0.01378541937192189 
0.01378541937192189 
0.01378541937192189 
0.01378541937192189 
0.01378541937192189 
0.01378541937192189 
0.01378541937192189 
0.01378541937192189 
0.01378541937192189 
0.01378541937192189 
0.01378541937192189 
0.01378541937192189 
0.01378541937192189 
0.01378541937192189 
0.01378541937192189 
0.01378541937192189 
0.01378541937192189 
0.01378541937192189 
0.01378541937192189 
0.01378541937192189 
0.01378541937192189 
0.01378541937192189 
0.01378541937192189 
0.01378541937192189 
0.01378541937192189 
0.01378541937192189 
0.01462096864258577 
0.01462096864258577 
0.01462096864258577 
0.01462096864258577 
0.01462096864258577 
0.01462096864258577 
0.01462096864258577 
0.01462096864258577 
0.01462096864258577 
0.01462096864258577 
0.01462096864258577 
0.01462096864258577 
0.01462096864258577 
0.01462096864258577 
0.01462096864258577 
0.01462096864258577 
0.01462096864258577 
0.01462096864258577 
0.01462096864258577 
0.01462096864258577 
0.01462096864258577 
0.01462096864258577 
0.01462096864258577 
0.01462096864258577 
0.01462096864258577 
0.01462096864258577 
0.01462096864258577 
0.01462096864258577 
0.01462096864258577 
0.01462096864258577 
0.01462096864258577 
0.01462096864258577 
0.01462096864258577 
0.01462096864258577 
0.01462096864258577 
0.01462096864258577 
0.01462096864258577 
0.01462096864258577 
0.01462096864258577 
0.01462096864258577 
-0.02128018318358016 
-0.02128018318358016 
-0.02128018318358016 
-0.02128018318358016 
-0.02128018318358016 
-0.02128018318358016 
-0.02128018318358016 
-0.02128018318358016 
-0.02128018318358016 
-0.02128018318358016 
-0.02128018318358016 
-0.02128018318358016 
-0.02128018318358016 
-0.02128018318358016 
-0.02128018318358016 
-0.02128018318358016 
-0.02128018318358016 
-0.02128018318358016 
-0.02128018318358016 
-0.02128018318358016 
-0.02128018318358016 
0.01294103550216022 
0.01294103550216022 
0.01294103550216022 
0.01294103550216022 
0.01294103550216022 
0.01294103550216022 
0.01294103550216022 
0.01294103550216022 
0.01294103550216022 
0.01294103550216022 
0.01294103550216022 
0.01294103550216022 
0.01294103550216022 
0.01294103550216022 
0.01294103550216022 
0.01294103550216022 
0.01294103550216022 
0.01294103550216022 
0.01294103550216022 
0.01294103550216022 
0.01294103550216022 
0.01294103550216022 
0.01294103550216022 
0.01294103550216022 
0.01294103550216022 
0.01294103550216022 
0.01294103550216022 
0.01294103550216022 
0.01294103550216022 
0.01294103550216022 
0.01294103550216022 
0.01294103550216022 
0.01294103550216022 
0.01294103550216022 
0.01294103550216022 
0.01294103550216022 
0.01294103550216022 
0.01294103550216022 
0.01294103550216022 
0.01294103550216022 
0.01294103550216022 
0.01294103550216022 
0.01294103550216022 
0.01294103550216022 
0.01294103550216022 
