solver_type L2R_L2LOSS_SVC_DUAL
nr_class 1
label 1
nr_feature 323
bias -1
w
0.01315926664520533 
0.01315926664520533 
0.02724904523627999 
0.01315926664520533 
0.01315926664520533 
0.01315926664520533 
0.0253134377681944 
0.01315926664520533 
0.01315926664520533 
0.01315926664520533 
0.01315926664520533 
0.01315926664520533 
0.0253134377681944 
0.01315926664520533 
0.01315926664520533 
0.01315926664520533 
0.01315926664520533 
0.01315926664520533 
0.01315926664520533 
0.01315926664520533 
0.01315926664520533 
0.01315926664520533 
0.01315926664520533 
0.01315926664520533 
0.01315926664520533 
0.01315926664520533 
0.01315926664520533 
0.01315926664520533 
0.01315926664520533 
0.01315926664520533 
0.01315926664520533 
0.01315926664520533 
0.01315926664520533 
0.01315926664520533 
0.01315926664520533 
0.01315926664520533 
0.01315926664520533 
0.01315926664520533 
0.01315926664520533 
0.01315926664520533 
0.01315926664520533 
0.01315926664520533 
0.01315926664520533 
0.01315926664520533 
0.01315926664520533 
0.01315926664520533 
0.01315926664520533 
0.01315926664520533 
0.01315926664520533 
0.01315926664520533 
0.01669325581506379 
0.01669325581506379 
0.01669325581506379 
0.01669325581506379 
0.04293720552912752 
0.01669325581506379 
0.01669325581506379 
0.01669325581506379 
0.01669325581506379 
0.01669325581506379 
0.01669325581506379 
0.01669325581506379 
0.04119277200917641 
0.04119277200917641 
0.01669325581506379 
0.01669325581506379 
0.01669325581506379 
0.01669325581506379 
0.01669325581506379 
0.01669325581506379 
0.01669325581506379 
0.01669325581506379 
0.01669325581506379 
0.01669325581506379 
0.01669325581506379 
0.01669325581506379 
0.01669325581506379 
0.01669325581506379 
0.04119277200917641 
0.01669325581506379 
0.01669325581506379 
0.01234534507112355 
0.01234534507112355 
0.01234534507112355 
0.01234534507112355 
0.01234534507112355 
0.01234534507112355 
0.01234534507112355 
0.01234534507112355 
0.01234534507112355 
0.01234534507112355 
0.01234534507112355 
0.01234534507112355 
0.01234534507112355 
0.01234534507112355 
0.01234534507112355 
0.01234534507112355 
0.01234534507112355 
0.01234534507112355 
0.01234534507112355 
0.01234534507112355 
0.01234534507112355 
0.01234534507112355 
0.01234534507112355 
0.01234534507112355 
0.01234534507112355 
0.01234534507112355 
0.01234534507112355 
0.01234534507112355 
0.01234534507112355 
0.01234534507112355 
0.01234534507112355 
0.01234534507112355 
0.01234534507112355 
0.01234534507112355 
0.01234534507112355 
0.01234534507112355 
0.01234534507112355 
0.01234534507112355 
0.01234534507112355 
0.01234534507112355 
0.01234534507112355 
0.01234534507112355 
0.01234534507112355 
0.01234534507112355 
0.01234534507112355 
0.01408977859107466 
0.01408977859107466 
0.01408977859107466 
0.01408977859107466 
0.01408977859107466 
0.01408977859107466 
0.01408977859107466 
0.01408977859107466 
0.01408977859107466 
0.01408977859107466 
0.01408977859107466 
0.01408977859107466 
0.01408977859107466 
0.01408977859107466 
0.01408977859107466 
0.01408977859107466 
0.01408977859107466 
0.01408977859107466 
0.01408977859107466 
0.01408977859107466 
0.01408977859107466 
0.01408977859107466 
0.01408977859107466 
0.01408977859107466 
0.01408977859107466 
0.01408977859107466 
0.01408977859107466 
0.01408977859107466 
0.01408977859107466 
0.01408977859107466 
0.01408977859107466 
0.01408977859107466 
0.01408977859107466 
0.01408977859107466 
0.01408977859107466 
0.01408977859107466 
0.01408977859107466 
0.01408977859107466 
0.01408977859107466 
0.01408977859107466 
0.02128018318358016 
0.02128018318358016 
0.02128018318358016 
0.02128018318358016 
0.02128018318358016 
0.02128018318358016 
0.02128018318358016 
0.02128018318358016 
0.02128018318358016 
0.02128018318358016 
0.02128018318358016 
0.02128018318358016 
0.02128018318358016 
0.02128018318358016 
0.02128018318358016 
0.02128018318358016 
0.02128018318358016 
0.02128018318358016 
0.02128018318358016 
0.02128018318358016 
0.02128018318358016 
0.01215417112298907 
0.01215417112298907 
0.01215417112298907 
0.03325238566496763 
0.0602128755835111 
0.01215417112298907 
0.01215417112298907 
0.01215417112298907 
0.01215417112298907 
0.01215417112298907 
0.01215417112298907 
0.01215417112298907 
0.01215417112298907 
0.01215417112298907 
0.01215417112298907 
0.01215417112298907 
0.01215417112298907 
0.05174498049215177 
0.01215417112298907 
0.01215417112298907 
0.01215417112298907 
0.01215417112298907 
0.01215417112298907 
0.01215417112298907 
0.01215417112298907 
0.01215417112298907 
0.01215417112298907 
0.01215417112298907 
0.01215417112298907 
0.01215417112298907 
0.01215417112298907 
0.01215417112298907 
0.01215417112298907 
0.01215417112298907 
0.01215417112298907 
0.01215417112298907 
0.01215417112298907 
0.01215417112298907 
0.01215417112298907 
0.01215417112298907 
0.01215417112298907 
0.01215417112298907 
0.01215417112298907 
0.01215417112298907 
0.01215417112298907 
0.02109821454197857 
0.02109821454197857 
0.03859334232108768 
0.02109821454197857 
0.02109821454197857 
0.02109821454197857 
0.02109821454197857 
0.02109821454197857 
0.02109821454197857 
0.02109821454197857 
0.02109821454197857 
0.02109821454197857 
0.02109821454197857 
0.02109821454197857 
0.02109821454197857 
0.02109821454197857 
0.02109821454197857 
0.02109821454197857 
0.02109821454197857 
0.01749512777910911 
0.01749512777910911 
0.03790659158501969 
0.01749512777910911 
0.01749512777910911 
0.01749512777910911 
0.01749512777910911 
0.01749512777910911 
0.01749512777910911 
0.01749512777910911 
0.01749512777910911 
0.01749512777910911 
0.01749512777910911 
0.01749512777910911 
0.01749512777910911 
0.01749512777910911 
0.01749512777910911 
0.01749512777910911 
0.01749512777910911 
0.01749512777910911 
0.01749512777910911 
0.01749512777910911 
0.01749512777910911 
0.01749512777910911 
0.01749512777910911 
0.01749512777910911 
0.01749512777910911 
0.01749512777910911 
0.02764724065461146 
0.02764724065461146 
0.02764724065461146 
0.02764724065461146 
0.02764724065461146 
0.02764724065461146 
0.02764724065461146 
0.02764724065461146 
0.0220956815900536 
0.0220956815900536 
0.04250714539596417 
0.0220956815900536 
0.0220956815900536 
0.0220956815900536 
0.0220956815900536 
0.0220956815900536 
0.0220956815900536 
0.0220956815900536 
0.0220956815900536 
0.0220956815900536 
0.0220956815900536 
0.0220956815900536 
0.0220956815900536 
0.0220956815900536 
0.02041146380591058 
0.02041146380591058 
0.02041146380591058 
0.02041146380591058 
0.02041146380591058 
0.02041146380591058 
0.02041146380591058 
0.02041146380591058 
0.02041146380591058 
0.02041146380591058 
0.02041146380591058 
0.02041146380591058 
0.02041146380591058 
0.02041146380591058 
0.02041146380591058 
0.02041146380591058 
0.02041146380591058 
0.02041146380591058 
0.02041146380591058 
0.02041146380591058 
