solver_type L2R_L2LOSS_SVC_DUAL
nr_class 2
label 1 -1
nr_feature 1670
bias -1
w
0.009899306456830856 
0.009899306456830856 
0.07333061230902765 
0.02585742782066465 
0.009899306456830856 
0.02315935900513432 
0.006186103283600131 
0.009899306456830856 
0.06885461060339307 
0.02368436288437317 
0.0586362340537674 
0.009899306456830856 
0.02333087644976969 
0.0004431474074427684 
0.0255032261557555 
0.009899306456830856 
0.009899306456830856 
0.009899306456830856 
0.009899306456830856 
0.009899306456830856 
0.009899306456830856 
0.009899306456830856 
0.009899306456830856 
0.009899306456830856 
0.009899306456830856 
0.009899306456830856 
0.009899306456830856 
0.009899306456830856 
0.009899306456830856 
0.009899306456830856 
0.009899306456830856 
0.02368436288437317 
0.009899306456830856 
0.009899306456830856 
0.009899306456830856 
0.009899306456830856 
0.009899306456830856 
0.009899306456830856 
0.009899306456830856 
0.009899306456830856 
0.009899306456830856 
0.009899306456830856 
0.009899306456830856 
0.009899306456830856 
0.009899306456830856 
0.009899306456830856 
0.009899306456830856 
0.009899306456830856 
0.009899306456830856 
0.009899306456830856 
-0.008393663627056142 
-0.008393663627056142 
-0.008393663627056142 
-0.01070613107328078 
-0.07497369505809132 
-0.008393663627056142 
-0.008393663627056142 
-0.008393663627056142 
-0.008393663627056142 
-0.008393663627056142 
-0.008393663627056142 
-0.008393663627056142 
-0.1724796155056784 
-0.1530964025634603 
-0.008393663627056142 
-0.008393663627056142 
-0.008393663627056142 
-0.008393663627056142 
-0.008393663627056142 
-0.008393663627056142 
-0.008393663627056142 
-0.008393663627056142 
-0.008393663627056142 
-0.008393663627056142 
-0.008393663627056142 
-0.008393663627056142 
-0.008393663627056142 
-0.008393663627056142 
-0.1530964025634603 
-0.008393663627056142 
-0.008393663627056142 
0.02144251418873292 
0.02144251418873292 
0.02144251418873292 
0.02144251418873292 
0.004914630197330513 
0.004914630197330513 
0.02144251418873292 
0.02144251418873292 
0.02144251418873292 
0.02144251418873292 
0.02144251418873292 
0.03437892106849062 
0.009122045227517753 
0.02144251418873292 
0.02144251418873292 
0.02144251418873292 
0.02144251418873292 
0.02144251418873292 
0.02144251418873292 
0.02144251418873292 
0.02144251418873292 
0.02144251418873292 
0.02144251418873292 
0.02144251418873292 
0.02144251418873292 
0.02144251418873292 
0.02144251418873292 
0.02144251418873292 
0.02144251418873292 
0.02144251418873292 
0.02144251418873292 
0.02144251418873292 
0.02144251418873292 
0.02144251418873292 
0.02144251418873292 
0.02144251418873292 
0.02144251418873292 
0.02144251418873292 
0.009122045227517753 
0.02144251418873292 
0.02144251418873292 
0.02144251418873292 
0.02144251418873292 
0.02144251418873292 
0.02144251418873292 
0.2189758242536352 
0.007936040990545106 
0.02768432979213598 
0.007936040990545106 
0.007936040990545106 
0.007936040990545106 
0.007936040990545106 
0.05331631480494978 
0.007936040990545106 
-0.008591843000857299 
0.007936040990545106 
0.007936040990545106 
0.007936040990545106 
0.007936040990545106 
0.007936040990545106 
-0.0009289072025093752 
0.03839668527882677 
0.007936040990545106 
0.2057483243676648 
0.007936040990545106 
0.007936040990545106 
0.007936040990545106 
0.007936040990545106 
0.007936040990545106 
0.007936040990545106 
0.007936040990545106 
0.007936040990545106 
0.007936040990545106 
0.007936040990545106 
0.007936040990545106 
0.007936040990545106 
0.007936040990545106 
0.007936040990545106 
0.007936040990545106 
0.007936040990545106 
0.007936040990545106 
0.007936040990545106 
0.007936040990545106 
0.007936040990545106 
0.007936040990545106 
-0.02128018318358016 
-0.02128018318358016 
-0.02128018318358016 
-0.02128018318358016 
-0.02128018318358016 
-0.02128018318358016 
-0.02128018318358016 
-0.02128018318358016 
-0.02128018318358016 
-0.02128018318358016 
-0.02128018318358016 
-0.02128018318358016 
-0.02128018318358016 
-0.02128018318358016 
-0.02128018318358016 
-0.02128018318358016 
-0.02128018318358016 
-0.02128018318358016 
-0.02128018318358016 
-0.02128018318358016 
-0.02128018318358016 
-0.007943722322621248 
-0.01941048847307177 
0.03042319091812173 
0.03612268464773738 
-0.02145664138000038 
-0.007943722322621248 
0.02742187767153462 
-0.02303268530094897 
-0.007943722322621248 
-0.007943722322621248 
-0.007943722322621248 
-0.007943722322621248 
0.003606351450789021 
-0.007943722322621248 
-0.02732693526483936 
-0.007943722322621248 
0.005316330225682214 
-0.01869836030628608 
-0.007943722322621248 
-0.007943722322621248 
-0.007943722322621248 
-0.007943722322621248 
-0.007943722322621248 
-0.007943722322621248 
-0.007943722322621248 
-0.007943722322621248 
-0.007943722322621248 
-0.007943722322621248 
-0.007943722322621248 
-0.007943722322621248 
-0.007943722322621248 
-0.007943722322621248 
-0.007943722322621248 
-0.007943722322621248 
0.004723105529489425 
-0.007943722322621248 
-0.007943722322621248 
-0.007943722322621248 
-0.007943722322621248 
-0.007943722322621248 
-0.007943722322621248 
-0.007943722322621248 
-0.007943722322621248 
-0.007943722322621248 
-0.007943722322621248 
0.006700171718363927 
0.006700171718363927 
0.03783386856568868 
0.01970071873297185 
0.02618642094161185 
0.006700171718363927 
0.006700171718363927 
0.01996022426666739 
0.006700171718363927 
0.0178545292307815 
0.006700171718363927 
0.006700171718363927 
0.03739899722221823 
-0.001560565748192235 
0.006700171718363927 
0.006700171718363927 
0.006700171718363927 
0.006700171718363927 
0.006700171718363927 
0.006700171718363927 
0.006700171718363927 
0.006700171718363927 
0.006700171718363927 
0.006700171718363927 
0.006700171718363927 
0.006700171718363927 
0.006700171718363927 
0.006700171718363927 
0.006700171718363927 
0.006700171718363927 
0.006700171718363927 
0.006700171718363927 
0.006700171718363927 
0.01464716622073321 
0.01464716622073321 
0.03371168353511165 
0.01464716622073321 
0.004139518014366071 
0.01464716622073321 
-0.001880717770669192 
0.01464716622073321 
0.01464716622073321 
0.01464716622073321 
0.01464716622073321 
0.01464716622073321 
0.01464716622073321 
0.01464716622073321 
-0.001880717770669192 
0.008995304203348556 
0.008995304203348556 
0.008995304203348556 
0.008995304203348556 
0.02683013169790248 
0.01515250103028656 
0.008995304203348556 
0.008995304203348556 
0.008995304203348556 
0.04257616301415846 
0.02377711592360335 
0.008995304203348556 
0.0133310562382439 
0.008995304203348556 
0.008995304203348556 
0.008995304203348556 
0.008995304203348556 
0.008995304203348556 
0.008995304203348556 
0.008995304203348556 
0.008995304203348556 
0.008995304203348556 
0.008995304203348556 
0.008995304203348556 
0.008995304203348556 
0.008995304203348556 
0.008995304203348556 
0.008995304203348556 
0.008995304203348556 
0.008995304203348556 
0.008995304203348556 
0.008995304203348556 
0.008995304203348556 
0.008995304203348556 
0.008995304203348556 
0.01300515520757834 
0.05164438010091595 
0.01300515520757834 
0.01300515520757834 
0.01300515520757834 
0.01300515520757834 
0.01300515520757834 
0.01300515520757834 
0.01300515520757834 
0.01300515520757834 
0.01300515520757834 
0.01300515520757834 
0.01300515520757834 
0.01300515520757834 
0.01300515520757834 
0.01266682785211067 
0.01266682785211067 
0.01266682785211067 
0.01266682785211067 
0.01266682785211067 
0.01266682785211067 
0.01266682785211067 
0.01266682785211067 
0.01266682785211067 
0.01266682785211067 
0.007288764936225028 
0.01266682785211067 
0.01266682785211067 
0.01266682785211067 
0.01266682785211067 
0.01266682785211067 
0.01266682785211067 
0.01266682785211067 
0.01266682785211067 
0.01266682785211067 
0.003953759589483042 
0.01266682785211067 
0.01266682785211067 
0.01266682785211067 
0.01266682785211067 
0.01266682785211067 
0.01266682785211067 
0.01266682785211067 
0.01266682785211067 
0.01266682785211067 
-0.03550432983614919 
0.01266682785211067 
0.01266682785211067 
0.01266682785211067 
0.01266682785211067 
0.01266682785211067 
0.008545830605966094 
0.008545830605966094 
0.008545830605966094 
0.008545830605966094 
0.008545830605966094 
0.008545830605966094 
0.008545830605966094 
0.008545830605966094 
0.008545830605966094 
0.008545830605966094 
0.008545830605966094 
0.008545830605966094 
0.008545830605966094 
0.0003260434373548501 
0.008545830605966094 
0.008545830605966094 
0.008545830605966094 
0.008545830605966094 
0.008545830605966094 
0.008545830605966094 
0.008545830605966094 
0.008545830605966094 
0.008545830605966094 
0.008545830605966094 
0.008545830605966094 
0.008545830605966094 
0.008545830605966094 
0.008545830605966094 
0.008545830605966094 
0.008545830605966094 
0.008545830605966094 
0.008545830605966094 
0.008545830605966094 
0.008545830605966094 
0.008545830605966094 
0.008545830605966094 
0.008545830605966094 
0.008545830605966094 
0.005701192795705625 
0.005701192795705625 
0.005701192795705625 
-0.006619276165509539 
0.005701192795705625 
0.005701192795705625 
0.01242885900901618 
0.01257418126864955 
0.08356712401977688 
0.005701192795705625 
0.02634500720001514 
0.01861352911512345 
-0.01703723378678004 
0.01858233379078055 
0.005701192795705625 
0.005701192795705625 
0.005701192795705625 
0.005701192795705625 
0.005701192795705625 
0.005701192795705625 
0.005701192795705625 
0.005701192795705625 
0.005701192795705625 
0.005701192795705625 
0.005701192795705625 
0.005701192795705625 
0.005701192795705625 
0.005701192795705625 
0.005701192795705625 
-0.0101967689647598 
0.005701192795705625 
0.005701192795705625 
0.005701192795705625 
0.005701192795705625 
0.005701192795705625 
0.005701192795705625 
0.005701192795705625 
-0.01938321294221812 
-0.01938321294221812 
-0.01938321294221812 
-0.01938321294221812 
-0.01938321294221812 
-0.01938321294221812 
-0.003411515116324313 
-0.01938321294221812 
-0.01938321294221812 
-0.01938321294221812 
-0.01938321294221812 
-0.01938321294221812 
-0.01938321294221812 
-0.01938321294221812 
-0.01938321294221812 
-0.01938321294221812 
-0.01938321294221812 
-0.01938321294221812 
-0.01938321294221812 
-0.01938321294221812 
-0.01938321294221812 
-0.01938321294221812 
-0.01938321294221812 
-0.01938321294221812 
-0.01938321294221812 
-0.01938321294221812 
-0.01938321294221812 
-0.01938321294221812 
-0.01938321294221812 
-0.01938321294221812 
-0.01938321294221812 
-0.01938321294221812 
-0.01938321294221812 
-0.01938321294221812 
-0.01938321294221812 
-0.01938321294221812 
-0.01938321294221812 
-0.01938321294221812 
0.01974828880159087 
0.02920444785097896 
0.02920444785097896 
0.01974828880159087 
0.02920444785097896 
0.02920444785097896 
0.02920444785097896 
0.01595327394006651 
0.01595327394006651 
0.01595327394006651 
0.01595327394006651 
0.01595327394006651 
0.01595327394006651 
0.01595327394006651 
0.01595327394006651 
0.01595327394006651 
0.01595327394006651 
0.01595327394006651 
0.01595327394006651 
0.01595327394006651 
0.01595327394006651 
0.01595327394006651 
0.01595327394006651 
0.01595327394006651 
0.01595327394006651 
0.01595327394006651 
0.01595327394006651 
0.01595327394006651 
0.01595327394006651 
0.01595327394006651 
0.01595327394006651 
0.01595327394006651 
0.01595327394006651 
0.01595327394006651 
0.01595327394006651 
0.01595327394006651 
0.01595327394006651 
0.01595327394006651 
0.01595327394006651 
0.01595327394006651 
0.01595327394006651 
0.01115435751241757 
0.01115435751241757 
0.01115435751241757 
0.003169640586097752 
0.01115435751241757 
0.01115435751241757 
0.01115435751241757 
0.01115435751241757 
0.01115435751241757 
0.01115435751241757 
0.01115435751241757 
0.03148444120606934 
-0.02641466712724208 
-0.02641466712724208 
-0.02641466712724208 
-0.02641466712724208 
-0.005770852722932575 
-0.02641466712724208 
-0.02641466712724208 
-0.02641466712724208 
-0.02641466712724208 
-0.02641466712724208 
-0.02641466712724208 
-0.02641466712724208 
0.01702968928054436 
-0.02197312081093109 
-0.02197312081093109 
-0.02197312081093109 
-0.02197312081093109 
-0.02197312081093109 
-0.02197312081093109 
-0.02197312081093109 
-0.02197312081093109 
-0.02197312081093109 
-0.02197312081093109 
-0.02197312081093109 
-0.02197312081093109 
-0.02197312081093109 
-0.02197312081093109 
-0.02197312081093109 
-0.02197312081093109 
-0.02197312081093109 
-0.02197312081093109 
-0.02197312081093109 
-0.02197312081093109 
-0.02197312081093109 
-0.02197312081093109 
-0.003438835579807563 
-0.003550564237928018 
-0.01027823045123857 
-0.01027823045123857 
-0.005949333073084349 
-0.01027823045123857 
-0.01027823045123857 
-0.01027823045123857 
-0.01027823045123857 
-0.01027823045123857 
-0.01027823045123857 
-0.01027823045123857 
-0.01227022897844582 
-0.01027823045123857 
-0.01027823045123857 
-0.01027823045123857 
-0.01027823045123857 
-0.01027823045123857 
-0.01027823045123857 
-0.01027823045123857 
-0.01027823045123857 
-0.008219787168611244 
-0.008219787168611244 
-0.008219787168611244 
-0.008219787168611244 
-0.008219787168611244 
-0.008219787168611244 
-0.008219787168611244 
-0.008219787168611244 
-0.008219787168611244 
-0.008219787168611244 
0.01328969076495411 
-0.008219787168611244 
-0.008219787168611244 
-0.008219787168611244 
-0.008219787168611244 
-0.008219787168611244 
-0.008219787168611244 
-0.008219787168611244 
-0.008219787168611244 
-0.008219787168611244 
-0.008219787168611244 
-0.008219787168611244 
-0.008219787168611244 
-0.008219787168611244 
-0.008219787168611244 
-0.008219787168611244 
-0.008219787168611244 
-0.008219787168611244 
-0.008219787168611244 
-0.008219787168611244 
-0.008219787168611244 
-0.02602187732019515 
-0.02602187732019515 
-0.003325648850147963 
-0.02602187732019515 
-0.02602187732019515 
-0.02602187732019515 
-0.02602187732019515 
-0.005378062915885641 
-0.02602187732019515 
-0.02602187732019515 
-0.02602187732019515 
-0.02602187732019515 
-0.02602187732019515 
0.006839394871431005 
0.006839394871431005 
0.006839394871431005 
0.006839394871431005 
0.006839394871431005 
0.006839394871431005 
0.006839394871431005 
0.006839394871431005 
-0.001991998527207254 
0.006839394871431005 
0.006839394871431005 
0.01371238334437493 
0.006839394871431005 
0.006839394871431005 
0.006839394871431005 
0.006839394871431005 
0.006839394871431005 
0.006839394871431005 
0.006839394871431005 
0.006839394871431005 
0.006839394871431005 
0.006839394871431005 
0.006839394871431005 
0.006839394871431005 
0.006839394871431005 
0.006839394871431005 
0.006839394871431005 
0.006839394871431005 
0.006839394871431005 
0.006839394871431005 
0.006839394871431005 
0.006839394871431005 
-0.01444554237030399 
-0.01444554237030399 
-0.01444554237030399 
-0.01444554237030399 
-0.01444554237030399 
-0.01444554237030399 
-0.01444554237030399 
-0.01444554237030399 
-0.01444554237030399 
-0.01444554237030399 
-0.01146676615045052 
-0.01146676615045052 
-0.01146676615045052 
-0.01146676615045052 
0.02039095132471979 
-0.01146676615045052 
-0.01146676615045052 
-0.01146676615045052 
-0.01146676615045052 
-0.01146676615045052 
-0.01146676615045052 
-0.01146676615045052 
-0.01146676615045052 
-0.01146676615045052 
-0.01146676615045052 
-0.01146676615045052 
-0.01146676615045052 
0.009230455150523247 
0.009230455150523247 
0.07698347536397007 
0.03549396680846521 
0.009230455150523247 
0.009230455150523247 
0.009230455150523247 
0.009230455150523247 
0.009230455150523247 
0.009230455150523247 
0.03395364648663228 
0.009230455150523247 
0.009230455150523247 
0.009230455150523247 
0.009230455150523247 
0.009230455150523247 
0.009230455150523247 
-0.02619803687732877 
-0.02619803687732877 
-0.02619803687732877 
-0.02619803687732877 
-0.02619803687732877 
-0.02619803687732877 
-0.02619803687732877 
-0.02619803687732877 
-0.02619803687732877 
-0.02619803687732877 
-0.01351291905737913 
-0.01351291905737913 
-0.01351291905737913 
-0.01351291905737913 
-0.01351291905737913 
-0.01351291905737913 
-0.01351291905737913 
-0.01351291905737913 
-0.01351291905737913 
-0.01351291905737913 
-0.01351291905737913 
-0.01004064239344511 
-0.01004064239344511 
-0.01004064239344511 
-0.01004064239344511 
-0.01004064239344511 
-0.01004064239344511 
-0.01004064239344511 
-0.01004064239344511 
-0.01004064239344511 
-0.01004064239344511 
-0.01890559058649958 
-0.01004064239344511 
-0.01004064239344511 
-0.01004064239344511 
-0.01004064239344511 
-0.01004064239344511 
-0.01004064239344511 
-0.01004064239344511 
-0.01004064239344511 
-0.01004064239344511 
-0.01004064239344511 
-0.01004064239344511 
-0.01004064239344511 
-0.01004064239344511 
-0.01004064239344511 
-0.01232046896121516 
-0.01232046896121516 
-0.001426561189307103 
-0.03372202493949037 
0.003283450737709484 
-0.01232046896121516 
-0.01232046896121516 
-0.01232046896121516 
-0.01232046896121516 
-0.01232046896121516 
-0.01232046896121516 
-0.01232046896121516 
-0.01232046896121516 
-0.01232046896121516 
-0.01232046896121516 
-0.01232046896121516 
-0.01232046896121516 
-0.01232046896121516 
-0.01232046896121516 
-0.01232046896121516 
-0.01232046896121516 
-0.01232046896121516 
-0.01232046896121516 
-0.01232046896121516 
-0.01232046896121516 
-0.01232046896121516 
-0.01232046896121516 
-0.01232046896121516 
-0.01232046896121516 
-0.01232046896121516 
-0.01232046896121516 
-0.01232046896121516 
-0.01232046896121516 
-0.01232046896121516 
-0.01232046896121516 
-0.01232046896121516 
-0.01232046896121516 
-0.01232046896121516 
-0.01232046896121516 
-0.01232046896121516 
-0.01232046896121516 
0.01560391969892465 
0.01560391969892465 
0.01560391969892465 
0.01560391969892465 
0.01560391969892465 
0.01560391969892465 
0.01560391969892465 
0.01560391969892465 
0.01560391969892465 
0.01560391969892465 
0.01560391969892465 
0.01560391969892465 
-0.01239733153434998 
-0.01239733153434998 
-0.01239733153434998 
-0.01239733153434998 
-0.01239733153434998 
-0.01239733153434998 
-0.01239733153434998 
-0.01239733153434998 
-0.01239733153434998 
-0.01239733153434998 
-0.01239733153434998 
-0.01239733153434998 
-0.01239733153434998 
-0.01239733153434998 
-0.01239733153434998 
-0.01239733153434998 
0.02652558410501762 
0.01450737034821516 
0.01450737034821516 
0.01450737034821516 
0.01450737034821516 
0.05241733937578165 
0.01450737034821516 
0.01450737034821516 
0.01450737034821516 
0.01450737034821516 
0.01450737034821516 
0.01450737034821516 
0.01450737034821516 
0.01450737034821516 
0.01450737034821516 
0.01450737034821516 
0.01450737034821516 
0.01450737034821516 
0.01099543262312292 
0.01099543262312292 
0.01099543262312292 
0.01099543262312292 
0.01099543262312292 
0.01099543262312292 
0.01099543262312292 
0.01099543262312292 
0.01099543262312292 
0.01099543262312292 
0.01099543262312292 
0.01099543262312292 
0.01099543262312292 
0.01099543262312292 
0.01099543262312292 
0.01099543262312292 
0.01326005254830346 
0.01326005254830346 
0.01326005254830346 
0.01326005254830346 
0.01326005254830346 
0.01326005254830346 
0.01326005254830346 
0.02617238886772129 
0.01326005254830346 
0.01326005254830346 
0.01326005254830346 
0.01326005254830346 
0.01326005254830346 
0.01326005254830346 
0.01326005254830346 
0.01326005254830346 
0.01326005254830346 
0.01326005254830346 
0.01326005254830346 
0.01326005254830346 
0.01326005254830346 
0.01326005254830346 
0.01326005254830346 
0.01326005254830346 
0.01326005254830346 
0.01326005254830346 
0.01326005254830346 
0.01326005254830346 
0.01326005254830346 
0.01326005254830346 
0.01326005254830346 
0.01326005254830346 
0.01326005254830346 
0.01326005254830346 
0.01326005254830346 
0.01326005254830346 
0.01326005254830346 
0.01326005254830346 
0.02064381440430951 
0.01124400272146002 
0.02860988884144183 
0.02064381440430951 
0.0344157423609486 
0.02064381440430951 
0.02064381440430951 
0.02064381440430951 
0.02064381440430951 
0.02064381440430951 
0.02064381440430951 
0.02064381440430951 
0.02064381440430951 
0.02064381440430951 
0.02064381440430951 
0.02064381440430951 
0.02064381440430951 
0.02064381440430951 
0.02064381440430951 
0.02064381440430951 
0.02064381440430951 
0.02878698910358158 
0.03312274113847693 
0.02878698910358158 
0.02878698910358158 
0.02878698910358158 
0.02878698910358158 
0.02878698910358158 
0.02878698910358158 
-0.008864948193054481 
-0.008864948193054481 
-0.008864948193054481 
-0.008864948193054481 
-0.01832110724244257 
-0.008864948193054481 
-0.008864948193054481 
-0.008864948193054481 
-0.008864948193054481 
-0.008864948193054481 
-0.008864948193054481 
-0.008864948193054481 
-0.008864948193054481 
-0.008864948193054481 
-0.008864948193054481 
-0.008864948193054481 
-0.008864948193054481 
-0.008864948193054481 
-0.008864948193054481 
-0.008864948193054481 
-0.008864948193054481 
0.03195462945766966 
0.01288114099507492 
0.01288114099507492 
0.01288114099507492 
0.01288114099507492 
0.01288114099507492 
0.01288114099507492 
0.03379901685450581 
0.01288114099507492 
0.01288114099507492 
0.01288114099507492 
0.01288114099507492 
0.01288114099507492 
0.01288114099507492 
0.01288114099507492 
0.01288114099507492 
0.01288114099507492 
0.01288114099507492 
0.01288114099507492 
0.01288114099507492 
0.01288114099507492 
-0.01531819298466392 
-0.01531819298466392 
-0.01531819298466392 
-0.01531819298466392 
-0.01531819298466392 
-0.01531819298466392 
-0.01531819298466392 
-0.01531819298466392 
-0.01589796176046543 
-0.01589796176046543 
0.008828644111839541 
-0.01589796176046543 
-0.01589796176046543 
-0.01589796176046543 
-0.01589796176046543 
-0.01589796176046543 
-0.01589796176046543 
0.0008625696747072177 
0.0008625696747072177 
-0.01589796176046543 
-0.01589796176046543 
-0.009456159049388088 
-0.009456159049388088 
-0.009456159049388088 
-0.009456159049388088 
-0.009456159049388088 
-0.009456159049388088 
-0.009456159049388088 
-0.009456159049388088 
-0.009456159049388088 
-0.009456159049388088 
-0.009456159049388088 
-0.009456159049388088 
-0.009456159049388088 
-0.009456159049388088 
-0.009456159049388088 
-0.009456159049388088 
-0.009456159049388088 
-0.009456159049388088 
-0.009456159049388088 
-0.009456159049388088 
-0.009456159049388088 
-0.009456159049388088 
-0.009456159049388088 
-0.009456159049388088 
-0.009456159049388088 
-0.009456159049388088 
-0.009456159049388088 
-0.009456159049388088 
-0.009456159049388088 
-0.009456159049388088 
-0.009456159049388088 
0.01378505642754231 
0.01378505642754231 
0.01378505642754231 
0.01378505642754231 
0.02856686814779711 
0.01378505642754231 
0.01378505642754231 
0.01378505642754231 
0.01378505642754231 
0.01378505642754231 
0.01378505642754231 
0.01378505642754231 
0.01378505642754231 
0.01378505642754231 
0.01378505642754231 
0.01378505642754231 
0.01378505642754231 
0.01378505642754231 
0.01378505642754231 
0.01378505642754231 
0.01378505642754231 
0.01378505642754231 
0.01378505642754231 
0.01378505642754231 
0.01378505642754231 
0.01378505642754231 
0.01378505642754231 
0.01378505642754231 
0.01378505642754231 
0.01201821375680246 
0.01201821375680246 
0.01201821375680246 
0.01201821375680246 
0.01201821375680246 
0.01201821375680246 
0.01889120222974639 
0.01201821375680246 
0.01201821375680246 
0.01201821375680246 
0.01201821375680246 
0.01201821375680246 
0.01201821375680246 
0.01201821375680246 
0.01201821375680246 
0.01201821375680246 
0.01201821375680246 
0.01201821375680246 
0.01201821375680246 
0.01201821375680246 
0.01201821375680246 
0.01201821375680246 
0.01201821375680246 
0.01201821375680246 
0.01359050633702753 
0.01359050633702753 
0.01359050633702753 
0.01359050633702753 
0.01359050633702753 
0.01359050633702753 
0.01359050633702753 
0.01359050633702753 
0.01359050633702753 
0.01359050633702753 
0.01359050633702753 
0.01676053143517265 
0.01676053143517265 
0.01676053143517265 
0.01676053143517265 
0.01676053143517265 
0.01676053143517265 
0.01676053143517265 
0.01676053143517265 
0.01676053143517265 
0.01676053143517265 
0.01676053143517265 
0.01676053143517265 
0.01676053143517265 
0.01676053143517265 
0.01676053143517265 
0.01676053143517265 
0.01676053143517265 
0.01676053143517265 
0.01676053143517265 
0.01676053143517265 
0.01676053143517265 
0.01676053143517265 
0.01676053143517265 
0.01676053143517265 
0.01676053143517265 
0.01676053143517265 
0.01676053143517265 
0.01676053143517265 
-0.01508896297832772 
-0.01508896297832772 
-0.01508896297832772 
-0.01508896297832772 
-0.01508896297832772 
-0.01508896297832772 
-0.01508896297832772 
0.01021582098789387 
0.01330025031966724 
0.01021582098789387 
0.01021582098789387 
0.01021582098789387 
0.0231281573073117 
0.01021582098789387 
0.01021582098789387 
0.01021582098789387 
0.01021582098789387 
0.01021582098789387 
0.01021582098789387 
0.01021582098789387 
0.01021582098789387 
0.01021582098789387 
0.01021582098789387 
0.01021582098789387 
0.01021582098789387 
0.01021582098789387 
0.01021582098789387 
0.01021582098789387 
0.01021582098789387 
0.01021582098789387 
0.01021582098789387 
0.01021582098789387 
0.01021582098789387 
0.01021582098789387 
0.01021582098789387 
0.006727666213310552 
0.006727666213310552 
0.006727666213310552 
0.006727666213310552 
0.006727666213310552 
0.006727666213310552 
0.006727666213310552 
0.006727666213310552 
0.006727666213310552 
0.006727666213310552 
0.006727666213310552 
0.006727666213310552 
0.006727666213310552 
0.006727666213310552 
0.006727666213310552 
0.006727666213310552 
0.006727666213310552 
0.006727666213310552 
0.006727666213310552 
0.006727666213310552 
0.006727666213310552 
0.006727666213310552 
0.006727666213310552 
0.006727666213310552 
0.006727666213310552 
0.006727666213310552 
0.006727666213310552 
0.006727666213310552 
0.006727666213310552 
0.006727666213310552 
0.006727666213310552 
0.006727666213310552 
0.006727666213310552 
-0.0214015559782752 
-0.0214015559782752 
-0.0214015559782752 
-0.0214015559782752 
-0.0214015559782752 
-0.0214015559782752 
-0.0214015559782752 
-0.0214015559782752 
-0.0214015559782752 
-0.0214015559782752 
-0.0214015559782752 
-0.0214015559782752 
-0.0214015559782752 
-0.0214015559782752 
-0.0214015559782752 
-0.0214015559782752 
-0.0214015559782752 
-0.0214015559782752 
-0.0214015559782752 
-0.0214015559782752 
0.0147818117202548 
0.007069016333276884 
0.0147818117202548 
0.0147818117202548 
0.0147818117202548 
0.0147818117202548 
0.0147818117202548 
0.0147818117202548 
0.0147818117202548 
0.0147818117202548 
0.0147818117202548 
0.0147818117202548 
0.0147818117202548 
0.0147818117202548 
0.0147818117202548 
0.0147818117202548 
0.0147818117202548 
0.0147818117202548 
0.0147818117202548 
0.0147818117202548 
0.0147818117202548 
0.006161152143176915 
0.006161152143176915 
0.006161152143176915 
0.006161152143176915 
0.006161152143176915 
0.006161152143176915 
0.006161152143176915 
0.006161152143176915 
0.006161152143176915 
0.01412722658030924 
0.006161152143176915 
0.006161152143176915 
0.006161152143176915 
0.006161152143176915 
0.006161152143176915 
0.006161152143176915 
0.006161152143176915 
0.006161152143176915 
0.006161152143176915 
0.006161152143176915 
0.006161152143176915 
0.006161152143176915 
0.006161152143176915 
0.006161152143176915 
0.006161152143176915 
0.006161152143176915 
0.006161152143176915 
0.006161152143176915 
0.006161152143176915 
0.006161152143176915 
0.01907348846259473 
0.006161152143176915 
0.006161152143176915 
0.006161152143176915 
0.006161152143176915 
0.006161152143176915 
0.006161152143176915 
0.006161152143176915 
0.009436175921743728 
0.009436175921743728 
0.009436175921743728 
0.009436175921743728 
0.009436175921743728 
0.01797686806730961 
0.009436175921743728 
0.01377192795663907 
0.009436175921743728 
0.009436175921743728 
0.009436175921743728 
0.009436175921743728 
0.009436175921743728 
0.009436175921743728 
0.009436175921743728 
0.009436175921743728 
0.009436175921743728 
0.009436175921743728 
0.009436175921743728 
0.009436175921743728 
0.009436175921743728 
0.009436175921743728 
0.009436175921743728 
0.009436175921743728 
0.009436175921743728 
0.009436175921743728 
0.009436175921743728 
0.009436175921743728 
0.009436175921743728 
0.009436175921743728 
0.009436175921743728 
0.009436175921743728 
0.009436175921743728 
0.009436175921743728 
0.009436175921743728 
0.009436175921743728 
0.009436175921743728 
0.009436175921743728 
0.009436175921743728 
-0.008831393398638259 
-0.008831393398638259 
-0.008831393398638259 
-0.008831393398638259 
-0.008831393398638259 
-0.008831393398638259 
-0.008831393398638259 
-0.008831393398638259 
-0.0222748480582673 
-0.008831393398638259 
-0.008831393398638259 
-0.008831393398638259 
-0.008831393398638259 
-0.008831393398638259 
-0.008831393398638259 
-0.008831393398638259 
-0.008831393398638259 
-0.008831393398638259 
-0.008831393398638259 
-0.008831393398638259 
-0.008831393398638259 
-0.008831393398638259 
-0.008831393398638259 
-0.008831393398638259 
-0.008831393398638259 
-0.008831393398638259 
0.01089390777190806 
0.01089390777190806 
0.01089390777190806 
0.01089390777190806 
0.01089390777190806 
0.01089390777190806 
0.01089390777190806 
0.01089390777190806 
0.01089390777190806 
0.01089390777190806 
0.01089390777190806 
0.01089390777190806 
0.01089390777190806 
0.01089390777190806 
0.01089390777190806 
0.01248424101462286 
0.01248424101462286 
0.01248424101462286 
0.01248424101462286 
0.01248424101462286 
0.01248424101462286 
0.01248424101462286 
0.01248424101462286 
0.01248424101462286 
0.01681999304951821 
0.01248424101462286 
0.01248424101462286 
0.01248424101462286 
0.01248424101462286 
0.01248424101462286 
0.01248424101462286 
0.01248424101462286 
0.01248424101462286 
0.01248424101462286 
0.01248424101462286 
0.01248424101462286 
0.01248424101462286 
0.01248424101462286 
0.01248424101462286 
0.01248424101462286 
0.01248424101462286 
0.01248424101462286 
0.01248424101462286 
0.01248424101462286 
0.01248424101462286 
0.01248424101462286 
0.01248424101462286 
0.01248424101462286 
0.01248424101462286 
0.01248424101462286 
0.01248424101462286 
0.01248424101462286 
-0.009399811682849493 
-0.009399811682849493 
-0.009399811682849493 
-0.009399811682849493 
-0.009399811682849493 
-0.009399811682849493 
-0.009399811682849493 
-0.009399811682849493 
-0.009399811682849493 
-0.009399811682849493 
-0.009399811682849493 
-0.009399811682849493 
-0.009399811682849493 
-0.009399811682849493 
-0.009399811682849493 
-0.009399811682849493 
-0.009399811682849493 
-0.009399811682849493 
-0.009399811682849493 
-0.009399811682849493 
-0.009399811682849493 
-0.009399811682849493 
-0.009399811682849493 
-0.009399811682849493 
-0.009399811682849493 
-0.009399811682849493 
-0.009399811682849493 
-0.009399811682849493 
-0.009399811682849493 
-0.009399811682849493 
-0.009399811682849493 
-0.009399811682849493 
-0.009399811682849493 
-0.02062513170639574 
-0.02062513170639574 
-0.02062513170639574 
-0.02062513170639574 
-0.02062513170639574 
-0.02062513170639574 
-0.02062513170639574 
-0.02062513170639574 
-0.02062513170639574 
-0.02062513170639574 
-0.02062513170639574 
-0.02062513170639574 
-0.02062513170639574 
-0.02062513170639574 
-0.02062513170639574 
-0.02062513170639574 
-0.02062513170639574 
-0.02062513170639574 
-0.02062513170639574 
-0.02062513170639574 
-0.02062513170639574 
-0.02062513170639574 
0.007966074437132323 
0.007966074437132323 
0.007966074437132323 
0.007966074437132323 
0.007966074437132323 
0.007966074437132323 
0.007966074437132323 
0.007966074437132323 
0.007966074437132323 
0.007966074437132323 
0.007966074437132323 
0.007966074437132323 
0.007966074437132323 
0.007966074437132323 
0.007966074437132323 
0.007966074437132323 
0.007966074437132323 
0.007966074437132323 
0.007966074437132323 
0.007966074437132323 
0.007966074437132323 
0.007966074437132323 
0.007966074437132323 
0.007966074437132323 
0.007966074437132323 
0.007966074437132323 
0.007966074437132323 
0.007966074437132323 
0.007966074437132323 
0.007966074437132323 
0.007966074437132323 
0.007966074437132323 
0.007966074437132323 
-0.01133257506659428 
-0.01133257506659428 
-0.01133257506659428 
-0.01133257506659428 
-0.02643159102221415 
-0.01133257506659428 
-0.01133257506659428 
-0.01133257506659428 
-0.01133257506659428 
-0.01133257506659428 
-0.01133257506659428 
-0.01133257506659428 
-0.01133257506659428 
-0.01133257506659428 
-0.01133257506659428 
-0.01133257506659428 
-0.01133257506659428 
-0.01133257506659428 
-0.01133257506659428 
-0.0165278839914024 
-0.0165278839914024 
-0.0165278839914024 
-0.0165278839914024 
-0.0165278839914024 
-0.0165278839914024 
-0.0165278839914024 
-0.0165278839914024 
-0.0165278839914024 
-0.0165278839914024 
-0.0165278839914024 
-0.0165278839914024 
-0.0165278839914024 
-0.0165278839914024 
-0.0165278839914024 
-0.0165278839914024 
-0.0165278839914024 
-0.0165278839914024 
-0.0165278839914024 
-0.0165278839914024 
-0.0165278839914024 
-0.0165278839914024 
-0.0165278839914024 
-0.0165278839914024 
-0.0165278839914024 
-0.0165278839914024 
-0.0165278839914024 
-0.0165278839914024 
-0.0165278839914024 
-0.0165278839914024 
-0.0165278839914024 
0.01148169993768716 
0.01148169993768716 
0.01148169993768716 
0.01148169993768716 
0.01148169993768716 
0.01148169993768716 
0.01148169993768716 
0.01148169993768716 
0.01148169993768716 
0.01148169993768716 
0.01148169993768716 
0.01148169993768716 
0.01148169993768716 
0.01148169993768716 
0.01148169993768716 
0.01148169993768716 
0.01148169993768716 
0.01148169993768716 
0.01148169993768716 
0.01148169993768716 
0.01148169993768716 
0.01148169993768716 
0.01148169993768716 
0.01148169993768716 
0.02439403625710498 
0.01148169993768716 
0.01148169993768716 
0.004335752034895346 
0.004335752034895346 
0.004335752034895346 
0.004335752034895346 
0.004335752034895346 
0.004335752034895346 
0.004335752034895346 
0.004335752034895346 
0.004335752034895346 
0.004335752034895346 
0.004335752034895346 
0.004335752034895346 
0.004335752034895346 
0.004335752034895346 
0.004335752034895346 
0.004335752034895346 
0.004335752034895346 
0.004335752034895346 
0.004335752034895346 
0.004335752034895346 
0.004335752034895346 
0.004335752034895346 
0.004335752034895346 
0.004335752034895346 
0.006872988472943925 
0.006872988472943925 
0.006872988472943925 
0.006872988472943925 
0.006872988472943925 
0.006872988472943925 
0.006872988472943925 
0.006872988472943925 
0.006872988472943925 
0.006872988472943925 
0.006872988472943925 
0.006872988472943925 
0.006872988472943925 
0.006872988472943925 
0.006872988472943925 
0.006872988472943925 
0.006872988472943925 
0.006872988472943925 
0.006872988472943925 
0.006872988472943925 
0.006872988472943925 
0.006872988472943925 
-0.01509901595561986 
-0.01509901595561986 
-0.01509901595561986 
-0.01509901595561986 
-0.01509901595561986 
-0.01509901595561986 
-0.01509901595561986 
-0.01509901595561986 
-0.01509901595561986 
-0.01509901595561986 
-0.01509901595561986 
-0.01509901595561986 
-0.01509901595561986 
-0.01509901595561986 
-0.01509901595561986 
-0.01509901595561986 
-0.01509901595561986 
-0.01509901595561986 
-0.01509901595561986 
-0.01509901595561986 
-0.01509901595561986 
-0.01509901595561986 
-0.01509901595561986 
-0.01509901595561986 
-0.01509901595561986 
-0.01509901595561986 
-0.01509901595561986 
-0.01509901595561986 
-0.01509901595561986 
-0.01509901595561986 
-0.01509901595561986 
-0.01509901595561986 
-0.01509901595561986 
-0.01509901595561986 
-0.01509901595561986 
-0.01509901595561986 
-0.01509901595561986 
-0.01509901595561986 
0.008540692145565885 
0.008540692145565885 
0.008540692145565885 
0.008540692145565885 
0.008540692145565885 
0.008540692145565885 
0.008540692145565885 
0.008540692145565885 
0.008540692145565885 
0.008540692145565885 
0.008540692145565885 
0.008540692145565885 
0.008540692145565885 
0.008540692145565885 
0.008540692145565885 
0.008540692145565885 
0.008540692145565885 
0.008540692145565885 
0.008540692145565885 
0.008540692145565885 
0.008540692145565885 
0.008540692145565885 
0.008540692145565885 
0.008540692145565885 
0.008540692145565885 
0.008540692145565885 
0.008540692145565885 
0.008540692145565885 
0.008540692145565885 
0.008540692145565885 
0.008540692145565885 
0.01291233631941782 
0.01291233631941782 
0.01291233631941782 
0.01291233631941782 
0.01291233631941782 
0.01291233631941782 
0.01291233631941782 
0.01291233631941782 
0.01291233631941782 
0.01291233631941782 
0.01291233631941782 
0.01291233631941782 
0.01291233631941782 
0.01291233631941782 
0.01291233631941782 
0.01291233631941782 
