solver_type L2R_L2LOSS_SVC_DUAL
nr_class 1
label 1
nr_feature 232
bias -1
w
0.0126536161474331 
0.0126536161474331 
0.02692552824365244 
0.0126536161474331 
0.0126536161474331 
0.0126536161474331 
0.02473037580018157 
0.0126536161474331 
0.0126536161474331 
0.0126536161474331 
0.0126536161474331 
0.0126536161474331 
0.02473037580018157 
0.0126536161474331 
0.0126536161474331 
0.0126536161474331 
0.0126536161474331 
0.0126536161474331 
0.0126536161474331 
0.0126536161474331 
0.0126536161474331 
0.0126536161474331 
0.0126536161474331 
0.0126536161474331 
0.0126536161474331 
0.0126536161474331 
0.0126536161474331 
0.0126536161474331 
0.0126536161474331 
0.0126536161474331 
0.0126536161474331 
0.0126536161474331 
0.0126536161474331 
0.0126536161474331 
0.0126536161474331 
0.0126536161474331 
0.0126536161474331 
0.0126536161474331 
0.0126536161474331 
0.0126536161474331 
0.0126536161474331 
0.0126536161474331 
0.0126536161474331 
0.0126536161474331 
0.0126536161474331 
0.0126536161474331 
0.0126536161474331 
0.0126536161474331 
0.0126536161474331 
0.0126536161474331 
0.01754629868209272 
0.01754629868209272 
0.01754629868209272 
0.01754629868209272 
0.04389497043106053 
0.01754629868209272 
0.01754629868209272 
0.01754629868209272 
0.01754629868209272 
0.01754629868209272 
0.01754629868209272 
0.01754629868209272 
0.04193695552269582 
0.04193695552269582 
0.01754629868209272 
0.01754629868209272 
0.01754629868209272 
0.01754629868209272 
0.01754629868209272 
0.01754629868209272 
0.01754629868209272 
0.01754629868209272 
0.01754629868209272 
0.01754629868209272 
0.01754629868209272 
0.01754629868209272 
0.01754629868209272 
0.01754629868209272 
0.04193695552269582 
0.01754629868209272 
0.01754629868209272 
0.01231389718785464 
0.01231389718785464 
0.01231389718785464 
0.01231389718785464 
0.01231389718785464 
0.01231389718785464 
0.01231389718785464 
0.01231389718785464 
0.01231389718785464 
0.01231389718785464 
0.01231389718785464 
0.01231389718785464 
0.01231389718785464 
0.01231389718785464 
0.01231389718785464 
0.01231389718785464 
0.01231389718785464 
0.01231389718785464 
0.01231389718785464 
0.01231389718785464 
0.01231389718785464 
0.01231389718785464 
0.01231389718785464 
0.01231389718785464 
0.01231389718785464 
0.01231389718785464 
0.01231389718785464 
0.01231389718785464 
0.01231389718785464 
0.01231389718785464 
0.01231389718785464 
0.01231389718785464 
0.01231389718785464 
0.01231389718785464 
0.01231389718785464 
0.01231389718785464 
0.01231389718785464 
0.01231389718785464 
0.01231389718785464 
0.01231389718785464 
0.01231389718785464 
0.01231389718785464 
0.01231389718785464 
0.01231389718785464 
0.01231389718785464 
0.01427191209621934 
0.01427191209621934 
0.01427191209621934 
0.01427191209621934 
0.01427191209621934 
0.01427191209621934 
0.01427191209621934 
0.01427191209621934 
0.01427191209621934 
0.01427191209621934 
0.01427191209621934 
0.01427191209621934 
0.01427191209621934 
0.01427191209621934 
0.01427191209621934 
0.01427191209621934 
0.01427191209621934 
0.01427191209621934 
0.01427191209621934 
0.01427191209621934 
0.01427191209621934 
0.01427191209621934 
0.01427191209621934 
0.01427191209621934 
0.01427191209621934 
0.01427191209621934 
0.01427191209621934 
0.01427191209621934 
0.01427191209621934 
0.01427191209621934 
0.01427191209621934 
0.01427191209621934 
0.01427191209621934 
0.01427191209621934 
0.01427191209621934 
0.01427191209621934 
0.01427191209621934 
0.01427191209621934 
0.01427191209621934 
0.01427191209621934 
0.02128018318358016 
0.02128018318358016 
0.02128018318358016 
0.02128018318358016 
0.02128018318358016 
0.02128018318358016 
0.02128018318358016 
0.02128018318358016 
0.02128018318358016 
0.02128018318358016 
0.02128018318358016 
0.02128018318358016 
0.02128018318358016 
0.02128018318358016 
0.02128018318358016 
0.02128018318358016 
0.02128018318358016 
0.02128018318358016 
0.02128018318358016 
0.02128018318358016 
0.02128018318358016 
0.01207675965274847 
0.01207675965274847 
0.01207675965274847 
0.01207675965274847 
0.01207675965274847 
0.01207675965274847 
0.01207675965274847 
0.01207675965274847 
0.01207675965274847 
0.01207675965274847 
0.01207675965274847 
0.01207675965274847 
0.01207675965274847 
0.01207675965274847 
0.01207675965274847 
0.01207675965274847 
0.01207675965274847 
0.01207675965274847 
0.01207675965274847 
0.01207675965274847 
0.01207675965274847 
0.01207675965274847 
0.01207675965274847 
0.01207675965274847 
0.01207675965274847 
0.01207675965274847 
0.01207675965274847 
0.01207675965274847 
0.01207675965274847 
0.01207675965274847 
0.01207675965274847 
0.01207675965274847 
0.01207675965274847 
0.01207675965274847 
0.01207675965274847 
0.01207675965274847 
0.01207675965274847 
0.01207675965274847 
0.01207675965274847 
0.01207675965274847 
0.01207675965274847 
0.01207675965274847 
0.01207675965274847 
0.01207675965274847 
0.01207675965274847 
